digraph Tree {
node [shape=box, style="filled", color="black", fontname="helvetica"] ;
edge [fontname="helvetica"] ;
0 [label="Высота <= 1524.5\ngini = 0.632\nsamples = 1027\nvalue = [290, 86, 531, 120]", fillcolor="#bedff6"] ;
1 [label="Двери <= 4.5\ngini = 0.332\nsamples = 366\nvalue = [290, 73, 3, 0]", fillcolor="#eca26c"] ;
0 -> 1 [labeldistance=2.5, labelangle=45, headlabel="True"] ;
2 [label="gini = 0.0\nsamples = 247\nvalue = [247, 0, 0, 0]", fillcolor="#e58139"] ;
1 -> 2 ;
3 [label="Сиденья <= 4.5\ngini = 0.492\nsamples = 119\nvalue = [43, 73, 3, 0]", fillcolor="#b6f5b1"] ;
1 -> 3 ;
4 [label="gini = 0.0\nsamples = 20\nvalue = [20, 0, 0, 0]", fillcolor="#e58139"] ;
3 -> 4 ;
5 [label="Дорожный просвет <= 162.5\ngini = 0.401\nsamples = 99\nvalue = [23, 73, 3, 0]", fillcolor="#86ee7d"] ;
3 -> 5 ;
6 [label="gini = 0.0\nsamples = 62\nvalue = [0, 62, 0, 0]", fillcolor="#47e539"] ;
5 -> 6 ;
7 [label="Высота <= 1489.5\ngini = 0.519\nsamples = 37\nvalue = [23, 11, 3, 0]", fillcolor="#f3c5a4"] ;
5 -> 7 ;
8 [label="Максимальная скорость <= 183.5\ngini = 0.08\nsamples = 24\nvalue = [23, 0, 1, 0]", fillcolor="#e68642"] ;
7 -> 8 ;
9 [label="gini = 0.0\nsamples = 1\nvalue = [0, 0, 1, 0]", fillcolor="#399de5"] ;
8 -> 9 ;
10 [label="gini = 0.0\nsamples = 23\nvalue = [23, 0, 0, 0]", fillcolor="#e58139"] ;
8 -> 10 ;
11 [label="Объем двигателя <= 1360.5\ngini = 0.26\nsamples = 13\nvalue = [0, 11, 2, 0]", fillcolor="#68ea5d"] ;
7 -> 11 ;
12 [label="gini = 0.0\nsamples = 2\nvalue = [0, 0, 2, 0]", fillcolor="#399de5"] ;
11 -> 12 ;
13 [label="gini = 0.0\nsamples = 11\nvalue = [0, 11, 0, 0]", fillcolor="#47e539"] ;
11 -> 13 ;
14 [label="Высота <= 1800.5\ngini = 0.329\nsamples = 661\nvalue = [0, 13, 528, 120]", fillcolor="#6ab5eb"] ;
0 -> 14 [labeldistance=2.5, labelangle=-45, headlabel="False"] ;
15 [label="Ширина <= 1753.0\ngini = 0.092\nsamples = 548\nvalue = [0, 13, 522, 13]", fillcolor="#43a2e6"] ;
14 -> 15 ;
16 [label="Дорожный просвет <= 202.5\ngini = 0.219\nsamples = 8\nvalue = [0, 7, 0, 1]", fillcolor="#61e955"] ;
15 -> 16 ;
17 [label="gini = 0.0\nsamples = 7\nvalue = [0, 7, 0, 0]", fillcolor="#47e539"] ;
16 -> 17 ;
18 [label="gini = 0.0\nsamples = 1\nvalue = [0, 0, 0, 1]", fillcolor="#d739e5"] ;
16 -> 18 ;
19 [label="Дорожный просвет <= 141.0\ngini = 0.065\nsamples = 540\nvalue = [0, 6, 522, 12]", fillcolor="#40a0e6"] ;
15 -> 19 ;
20 [label="Двери <= 6.0\ngini = 0.48\nsamples = 10\nvalue = [0, 6, 4, 0]", fillcolor="#c2f6bd"] ;
19 -> 20 ;
21 [label="gini = 0.0\nsamples = 6\nvalue = [0, 6, 0, 0]", fillcolor="#47e539"] ;
20 -> 21 ;
22 [label="gini = 0.0\nsamples = 4\nvalue = [0, 0, 4, 0]", fillcolor="#399de5"] ;
20 -> 22 ;
23 [label="Объём багажника <= 754.5\ngini = 0.044\nsamples = 530\nvalue = [0, 0, 518, 12]", fillcolor="#3e9fe6"] ;
19 -> 23 ;
24 [label="Объём багажника максимальный <= 2838.0\ngini = 0.004\nsamples = 488\nvalue = [0, 0, 487, 1]", fillcolor="#399de5"] ;
23 -> 24 ;
25 [label="gini = 0.0\nsamples = 487\nvalue = [0, 0, 487, 0]", fillcolor="#399de5"] ;
24 -> 25 ;
26 [label="gini = 0.0\nsamples = 1\nvalue = [0, 0, 0, 1]", fillcolor="#d739e5"] ;
24 -> 26 ;
27 [label="Объём багажника <= 817.5\ngini = 0.387\nsamples = 42\nvalue = [0, 0, 31, 11]", fillcolor="#7fc0ee"] ;
23 -> 27 ;
28 [label="Максимальная скорость <= 253.5\ngini = 0.153\nsamples = 12\nvalue = [0, 0, 1, 11]", fillcolor="#db4be7"] ;
27 -> 28 ;
29 [label="gini = 0.0\nsamples = 11\nvalue = [0, 0, 0, 11]", fillcolor="#d739e5"] ;
28 -> 29 ;
30 [label="gini = 0.0\nsamples = 1\nvalue = [0, 0, 1, 0]", fillcolor="#399de5"] ;
28 -> 30 ;
31 [label="gini = 0.0\nsamples = 30\nvalue = [0, 0, 30, 0]", fillcolor="#399de5"] ;
27 -> 31 ;
32 [label="Коробка передач <= 2.5\ngini = 0.101\nsamples = 113\nvalue = [0, 0, 6, 107]", fillcolor="#d944e6"] ;
14 -> 32 ;
33 [label="Максимальная скорость <= 226.0\ngini = 0.018\nsamples = 108\nvalue = [0, 0, 1, 107]", fillcolor="#d73be5"] ;
32 -> 33 ;
34 [label="gini = 0.0\nsamples = 93\nvalue = [0, 0, 0, 93]", fillcolor="#d739e5"] ;
33 -> 34 ;
35 [label="Расход смешанный <= 7.6\ngini = 0.124\nsamples = 15\nvalue = [0, 0, 1, 14]", fillcolor="#da47e7"] ;
33 -> 35 ;
36 [label="gini = 0.0\nsamples = 1\nvalue = [0, 0, 1, 0]", fillcolor="#399de5"] ;
35 -> 36 ;
37 [label="gini = 0.0\nsamples = 14\nvalue = [0, 0, 0, 14]", fillcolor="#d739e5"] ;
35 -> 37 ;
38 [label="gini = 0.0\nsamples = 5\nvalue = [0, 0, 5, 0]", fillcolor="#399de5"] ;
32 -> 38 ;
}